#ifndef __FASTGRNN_GRNN0_PARAMS__
#define __FASTGRNN_GRNN0_PARAMS__

#define GRNN0_HIDD_DIM0 (8)
#define GRNN0_HIDD_DIM1 (9)

// clang-format off

const float GRNN0_SIGM_ZETA = (5.357289e-01);
const float GRNN0_SIGM_NU = (6.376318e-02);

const float GRNN0_BIAS_UPDATE[9] = 
   { 2.24627852e+00,  3.93637627e-01,  2.97983479e+00,  2.15407968e+00,  9.22921181e-01,  1.90305495e+00, -3.44713658e-01,  3.42399144e+00,
     1.95906413e+00};

const float GRNN0_BIAS_GATE[9] = 
   {-6.82781076e+00, -8.98214626e+00, -4.95741653e+00, -6.69657898e+00,  4.84889698e+00, -4.10562181e+00, -6.27172613e+00, -5.65936613e+00,
    -3.63253140e+00};

const float GRNN0_W[9][8] = {
   { 1.45511404e-01, -2.84316868e-01, -8.64428461e-01, -5.70879221e-01,  1.17872626e-01, -2.23728999e-01,  1.20042719e-01,  2.25703612e-01},
   {-1.36500049e+00, -6.60298169e-01, -9.16191041e-02, -3.77546459e-01, -3.93782090e-03,  1.54460862e-01, -7.38513395e-02, -8.16718712e-02},
   {-7.59393722e-02, -3.24980944e-01, -3.18597764e-01,  1.18454769e-01, -2.31674891e-02, -7.13951766e-01,  1.53946921e-01,  3.99749801e-02},
   {-7.94460893e-01, -6.80451810e-01, -2.11915120e-01,  8.40814263e-02,  4.85563651e-02, -8.84860009e-02,  5.35816140e-02,  7.74056166e-02},
   { 8.03648233e-02,  1.86060086e-01,  1.38854280e-01, -7.17593059e-02, -3.32178771e-01, -7.88287818e-02, -3.35129350e-01,  8.14645141e-02},
   {-1.72455996e-01, -4.13056731e-01, -1.98832434e-03, -1.07885227e-01, -1.07130513e-01,  3.27953249e-01,  3.27677608e-01, -3.25770676e-01},
   { 7.33097866e-02,  2.75661528e-01,  2.43983522e-01, -1.66342273e-01, -3.81462365e-01,  7.56142661e-02,  2.41949946e-01,  4.84021097e-01},
   {-2.84079820e-01, -2.55506456e-01, -7.89802223e-02, -3.28978866e-01, -7.37409890e-01, -1.30442888e-01,  3.23954910e-01, -1.21974349e-02},
   {-1.13909893e-01, -1.86558813e-01, -8.83395150e-02,  1.49166435e-01,  3.13630134e-01,  1.84327379e-01, -3.42261851e-01, -3.78027141e-01},
};

const float GRNN0_U[9][9] = {
   { 1.47546685e+00,  5.40637970e-01, -3.23453397e-02, -3.21912795e-01, -1.99583149e+00, -4.15900797e-02,  1.18534721e-01,  6.40311688e-02,
    -2.05040067e-01},
   { 2.59189874e-01,  1.42135048e+00,  1.46175265e-01,  1.35455406e+00, -4.29586267e+00, -7.79615045e-01, -3.02472897e-02,  1.06727779e+00,
     1.07298493e+00},
   {-9.79804769e-02,  5.44242620e-01,  1.16846836e+00, -3.00222307e-01, -2.08422923e+00, -8.66416991e-01,  1.21983007e-01, -1.44140244e-01,
    -2.48875037e-01},
   { 1.15284063e-01,  9.68840718e-01,  4.82035056e-02,  4.39905763e-01, -2.46431255e+00,  5.76302148e-02,  5.60213625e-01, -3.06228042e-01,
     3.92583050e-02},
   {-3.67896371e-02, -2.02913746e-01, -1.43626884e-01,  2.29200289e-01, -7.10290968e-01,  5.09528220e-01, -5.43774009e-01, -2.59134114e-01,
    -4.37937856e-01},
   { 6.10055141e-02,  7.59393215e-01, -3.22267771e-01, -2.28235856e-01, -6.43945098e-01,  1.03038788e+00, -4.72238958e-01, -1.17488831e-01,
    -9.74513441e-02},
   {-2.17121989e-01, -1.38062149e-01,  3.53133857e-01,  1.08921744e-01,  1.69021499e+00,  7.74589956e-01,  7.56602585e-01, -2.29212850e-01,
    -1.71355379e+00},
   {-3.72684598e-01,  9.70461190e-01,  1.72940373e-01, -3.98808628e-01, -2.41516447e+00,  1.00087784e-02,  9.09781575e-01,  1.07114196e+00,
    -1.33768606e+00},
   { 1.24858715e-01, -1.05424829e-01, -3.18061560e-01, -2.98197448e-01, -1.07259810e+00, -5.82316995e-01, -9.07288909e-01,  9.41585004e-02,
     1.10692763e+00},
};

// clang-format on


#endif // __FASTGRNN_GRNN0_PARAMS__

