#ifndef __FASTGRNN_FC_PARAMS__
#define __FASTGRNN_FC_PARAMS__

#define FC_IN_DIM (9)
#define FC_OUT_DIM (8)

// clang-format off

const float FC_W[8][9] = {
   {-6.36077598e-02,  4.95114684e-01,  5.19218385e-01, -2.87733972e-01,  1.23370662e-01, -4.22593117e-01, -1.31452501e-01, -3.21631253e-01,
     3.27858748e-03},
   {-8.03013146e-02,  4.67543423e-01,  5.96204937e-01, -3.54983032e-01,  1.44401252e-01, -3.04601222e-01, -1.06622614e-01, -2.97779620e-01,
    -8.41146857e-02},
   {-3.21533859e-01,  6.34392381e-01,  5.22113800e-01, -5.29899120e-01,  3.58896255e-01, -3.29168886e-02, -4.93115298e-02, -2.98223406e-01,
    -4.23604488e-01},
   {-3.19497854e-01,  7.12009370e-01,  1.65807948e-01, -3.64390939e-01,  5.31850934e-01, -1.35131463e-01,  5.52410707e-02, -2.26292849e-01,
    -8.73180449e-01},
   {-3.08747590e-01,  5.80001950e-01,  1.06291547e-01, -2.27604002e-01,  4.76473212e-01, -1.28554851e-01,  1.52699798e-01, -6.13562703e-01,
    -6.68722391e-01},
   {-5.10721266e-01,  6.23168349e-01,  3.60241644e-02, -5.01046836e-01,  9.40043703e-02, -3.29029039e-02,  4.57651883e-01, -6.48995638e-01,
    -3.64148766e-01},
   {-4.63681638e-01,  5.48050523e-01, -2.88257040e-02, -9.64673042e-01,  1.38185427e-01, -1.58523336e-01,  1.98472500e-01, -4.67206270e-01,
    -9.02958363e-02},
   {-3.64492565e-01,  5.82916141e-01, -2.40018852e-02, -1.12635577e+00,  4.54091370e-01, -1.82266563e-01, -6.86342344e-02, -6.41978443e-01,
    -3.15005153e-01},
};

const float FC_B[8] = 
   {-1.41653568e-01, -7.85742402e-02, -4.85619381e-02, -2.74619043e-01, -2.01767400e-01, -1.24793127e-01, -5.38454615e-02,  1.85448661e-01};

// clang-format on


#endif // __FASTGRNN_FC_PARAMS__

