#ifndef __FASTGRNN_GRNN0_PARAMS__
#define __FASTGRNN_GRNN0_PARAMS__

#define GRNN0_HIDD_DIM0 (16)
#define GRNN0_HIDD_DIM1 (8)

// clang-format off

const float GRNN0_SIGM_ZETA = (8.611243e-01);
const float GRNN0_SIGM_NU = (7.777228e-03);

const float GRNN0_BIAS_UPDATE[8] =
   { 9.51044083e-01,  5.23786247e-01,  1.45056939e+00,  5.22255123e-01, -8.18537995e-02,  9.63449240e-01,  1.00927806e+00,  6.39805019e-01};

const float GRNN0_BIAS_GATE[8] =
   {-8.14804614e-01,  3.42030823e-01, -2.01017690e+00, -1.52966881e+00,  2.53109169e+00, -1.58827806e+00, -1.74346936e+00, -1.16721196e-02};

const float GRNN0_W[8][16] = {
   { 8.14482644e-02,  1.35503476e-04, -7.72768110e-02, -2.09942222e-01, -3.00324291e-01, -2.83547103e-01, -4.07713175e-01, -2.52741009e-01,
    -1.86281756e-01, -2.51638085e-01, -2.85263747e-01, -3.99092920e-02,  1.58394307e-01,  5.99899888e-01,  5.90468407e-01,  4.39813137e-01},
   {-2.08965227e-01, -4.29245204e-01, -3.35829794e-01, -4.03049082e-01, -8.82408172e-02,  7.71599337e-02,  3.08856755e-01,  3.22981089e-01,
     6.28754497e-03, -1.64543524e-01, -1.89192295e-01, -6.67830035e-02,  3.74226868e-01,  4.05380160e-01, -1.36766047e-03,  5.48852123e-02},
   {-7.88443565e-01,  4.43264604e-01, -5.27830571e-02, -2.40496740e-01,  2.99576148e-02,  2.17770845e-01,  3.09543073e-01,  2.40722612e-01,
     2.41439864e-01,  1.58898473e-01,  2.73117602e-01,  2.42503449e-01,  2.59931684e-01, -1.76901549e-01, -5.59242725e-01, -3.99865061e-01},
   {-3.02767251e-02, -4.16813731e-01, -5.07403791e-01, -5.67210793e-01, -3.89741391e-01, -3.57207000e-01, -2.16251910e-01, -1.85141727e-01,
     4.05138135e-02,  5.25747575e-02,  1.28580526e-01, -2.76958123e-02,  7.90221840e-02,  5.15052080e-01,  6.70110524e-01,  6.60114765e-01},
   {-9.74945247e-01, -3.30540508e-01, -6.96904242e-01, -5.07114708e-01, -2.11178988e-01,  9.97582003e-02, -4.18517403e-02,  1.31288037e-01,
     9.33871865e-02,  2.84737289e-01,  2.26564571e-01,  2.09474534e-01,  2.97571495e-02,  3.72176498e-01,  5.64695358e-01,  4.17275488e-01},
   { 1.10514194e-01, -1.13510378e-01, -6.17830381e-02, -2.70610660e-01, -3.10513884e-01, -2.03248799e-01, -1.01425640e-01,  7.88954496e-02,
     1.48879528e-01,  1.34804159e-01, -2.80405730e-01, -5.87879717e-01, -6.15847886e-01,  3.65892738e-01,  9.86699104e-01,  4.19370204e-01},
   { 7.48922586e-01,  4.30465221e-01,  5.56923091e-01,  2.29213789e-01,  2.05281362e-01, -3.76148778e-03,  2.79129326e-01,  9.30954143e-02,
     8.20178315e-02, -6.62651882e-02, -1.09357536e-01, -2.39046112e-01, -2.97434390e-01, -3.30548137e-01, -4.59576309e-01, -5.51967919e-01},
   { 6.12339601e-02, -1.95663288e-01, -2.07687825e-01, -2.70078570e-01, -4.73179489e-01, -3.57299685e-01, -2.45940194e-01, -1.04666241e-01,
     4.90725674e-02,  2.51734257e-01,  3.56360972e-01,  8.91072676e-02, -8.71066079e-02,  1.52842104e-01,  3.34202737e-01,  2.48028800e-01},
};

const float GRNN0_U[8][8] = {
   { 7.40742981e-01, -2.65914679e-01, -3.15099478e-01,  2.75530994e-01,  2.11388573e-01, -5.75004220e-02, -1.75405413e-01, -5.60509264e-01},
   { 2.50009835e-01,  3.74497116e-01, -4.86962140e-01, -1.14784352e-01,  2.52928227e-01, -1.57587558e-01, -5.06790519e-01, -2.46983230e-01},
   {-2.61717439e-01, -4.60981041e-01,  6.93933964e-01, -1.41878054e-01,  3.99764717e-01, -1.16312332e-01, -1.55534670e-01, -1.23460047e-01},
   { 4.40369636e-01, -6.22761071e-01, -7.71312416e-01,  4.17148560e-01,  2.93548793e-01, -5.69065697e-02, -5.78305066e-01, -3.44866753e-01},
   {-1.80803567e-01, -3.38883817e-01, -4.19382691e-01,  2.74411291e-01,  1.62863731e-01, -6.87947273e-01, -1.05278087e+00, -4.55441654e-01},
   {-2.23308206e-01, -7.30060816e-01,  2.19177514e-01,  2.74761170e-01,  5.38472474e-01,  1.00311244e+00, -3.96449804e-01, -4.75034237e-01},
   {-2.34720290e-01,  2.24060997e-01, -1.14645970e+00, -5.09505212e-01, -4.50459927e-01, -4.63816896e-02,  9.50653970e-01,  7.34147191e-01},
   { 8.80003795e-02, -3.52591097e-01,  2.89898813e-01, -9.41664854e-04, -3.85727659e-02, -1.45107731e-01, -6.90417945e-01,  3.54195386e-01},
};

// clang-format on

#endif  // __FASTGRNN_GRNN0_PARAMS__
