#ifndef __FASTGRNN_GRNN0_PARAMS__
#define __FASTGRNN_GRNN0_PARAMS__

#define GRNN0_HIDD_DIM0 (9)
#define GRNN0_HIDD_DIM1 (9)

// clang-format off

const float GRNN0_SIGM_ZETA = (8.314222e-01);
const float GRNN0_SIGM_NU = (4.864743e-03);

const float GRNN0_BIAS_UPDATE[9] = 
   {-8.83275196e-02,  5.59635580e-01,  1.40675402e+00,  1.43800187e+00,  1.35140836e+00,  8.17880988e-01,  1.51255465e+00, -1.59580246e-01,
    -5.21107614e-01};

const float GRNN0_BIAS_GATE[9] = 
   { 2.12380099e+00, -3.95922780e-01,  3.29997897e-01, -2.00957954e-02, -1.04121327e+00, -6.73908532e-01, -1.46952128e+00,  2.30695081e+00,
    -3.64244986e+00};

const float GRNN0_W[9][9] = {
   {-1.49072725e-02,  1.35724381e-01, -3.80354911e-01,  3.41593087e-01,  3.05370271e-01,  2.99281776e-01,  1.40680343e-01,  2.86460638e-01,
     4.62565690e-01},
   {-4.38387722e-01, -8.15989614e-01, -4.07237321e-01,  1.36225075e-01, -9.28172655e-03, -1.20983064e-01, -3.93413007e-02,  1.39554530e-01,
    -6.32623136e-02},
   { 3.87714021e-02, -3.30210105e-02, -9.57367849e-03, -1.71428204e-01,  9.23732296e-03, -4.47303981e-01, -4.62053627e-01,  1.04797304e-01,
     4.79209423e-01},
   {-8.16961676e-02, -4.34552655e-02,  2.94954441e-02, -1.76767737e-01, -4.52411413e-01, -3.25809151e-01,  1.12897940e-01,  2.25487158e-01,
     4.61232573e-01},
   { 4.09204178e-02, -9.82761905e-02, -8.84502530e-02,  9.32009704e-03,  2.06287175e-01,  2.94742197e-01,  2.63477176e-01, -2.98161268e-01,
    -4.95442718e-01},
   { 3.80080380e-02, -9.37372968e-02, -7.38633871e-01, -5.80769777e-01, -8.25832188e-02,  3.19184884e-02,  8.47514346e-02,  2.25913040e-02,
     2.95868635e-01},
   {-1.67214312e-02, -1.84515953e-01, -2.91696221e-01, -1.34198472e-01,  1.19251177e-01,  1.90809965e-01, -7.12258041e-01, -5.25740206e-01,
     5.85523725e-01},
   {-8.89911175e-01, -9.54599380e-01, -8.30927312e-01, -4.51806456e-01,  7.28311539e-02,  2.32709229e-01,  1.33229243e-02, -1.14585079e-01,
     7.24730313e-01},
   {-1.15876758e+00, -5.73906839e-01, -1.79052949e-01, -8.99486840e-02, -1.04868878e-02,  1.18524119e-01,  1.18792601e-01,  7.21422955e-02,
     4.43824559e-01},
};

const float GRNN0_U[9][9] = {
   {-2.38727450e+00,  2.47920170e-01, -7.51490146e-03, -3.58997643e-01, -3.26074481e-01, -5.99017330e-02,  2.10641287e-02, -9.66576338e-02,
    -3.52018386e-01},
   { 1.56228340e+00,  1.77775279e-01,  3.26256931e-01,  4.44380157e-02,  2.13717312e-01,  1.07804731e-01, -2.14591786e-01, -1.23946980e-01,
    -3.00633330e-02},
   { 1.28398860e+00, -6.35742247e-01,  1.01621008e+00,  5.12482822e-01, -7.87747920e-01, -8.37158710e-02,  4.06333983e-01,  2.96148777e-01,
    -5.65430559e-02},
   { 2.55470634e-01, -2.21641257e-01,  9.86108631e-02,  1.09936392e+00, -8.86601985e-01, -1.48316205e-01, -2.84049630e-01, -4.18331064e-02,
     6.67080879e-02},
   { 5.23257554e-01, -2.12074801e-01, -3.09779823e-01, -6.24587238e-01,  1.20728970e+00,  7.31516182e-02,  4.93718497e-02,  1.93874225e-01,
    -1.83600616e-02},
   { 1.59960115e+00, -8.74823391e-01,  3.43240470e-01,  1.83768839e-01,  5.82663119e-02,  1.11273277e+00, -1.45637188e-02,  3.16383354e-02,
     2.85266727e-01},
   { 1.97093928e+00, -5.65498948e-01,  4.26402897e-01, -3.99897873e-01,  2.58465912e-02, -1.25255346e-01,  1.16116858e+00,  2.97029853e-01,
     3.33923459e-01},
   { 1.44348633e+00,  1.06647871e-01,  4.15828913e-01,  5.43554962e-01,  1.93489552e-01,  4.98385012e-01, -1.38593212e-01, -1.48317671e+00,
     1.19525218e+00},
   { 9.08568442e-01,  1.42445698e-01,  2.46389121e-01, -1.95248574e-02, -1.45898275e-02,  5.30599177e-01, -7.83562195e-03,  4.29285411e-03,
     1.27220345e+00},
};

// clang-format on


#endif // __FASTGRNN_GRNN0_PARAMS__

