#ifndef __FASTGRNN_FC_PARAMS__
#define __FASTGRNN_FC_PARAMS__

#define FC_IN_DIM (9)
#define FC_OUT_DIM (8)

// clang-format off

const float FC_W[8][9] = {
   { 1.47268057e-01, -3.43532294e-01, -8.95817652e-02, -1.13731933e+00,  2.60157846e-02, -8.73982459e-02, -6.18755296e-02, -1.25041470e-01,
    -1.24020413e-01},
   {-5.08182086e-02, -2.51572102e-01, -1.28939018e-01, -1.09217501e+00,  6.33426523e-03, -1.79186791e-01, -5.85927479e-02, -5.98678514e-02,
    -1.72525138e-01},
   {-8.14044654e-01, -1.27575263e-01, -1.71744928e-01, -3.88294011e-01,  2.54349923e-03, -1.99796587e-01, -9.19302404e-02, -1.32390976e-01,
    -4.59536314e-01},
   {-1.04772568e+00, -8.82628039e-02,  1.79445744e-01,  2.98202075e-02,  1.81250144e-02,  1.07857220e-01, -5.88733032e-02, -6.12749934e-01,
    -2.64749378e-01},
   {-3.01783621e-01, -7.89845139e-02, -3.27708304e-01,  7.49451071e-02,  2.57789227e-03, -7.63283460e-04, -3.14379148e-02, -1.01889646e+00,
    -7.40141273e-02},
   {-1.55095756e-01, -1.01605512e-01, -1.14878166e+00, -6.11290708e-02,  1.36669315e-02,  3.24448586e-01, -8.10214877e-02, -2.37054914e-01,
    -3.88505936e-01},
   {-3.96845527e-02, -5.30916713e-02, -5.93354344e-01, -1.31462902e-01,  8.83196853e-03,  9.59548168e-03, -1.69471070e-01,  7.62036815e-02,
    -1.23606312e+00},
   {-5.91806918e-02, -1.88037492e-02, -6.54907882e-01, -1.29108643e-02,  8.50968901e-03, -5.71999967e-01, -1.43112749e-01, -1.33980602e-01,
    -1.04514170e+00},
};

const float FC_B[8] = 
   {-6.72882097e-03,  1.14842311e-01,  3.11916769e-01, -3.83316055e-02,  1.81560079e-03, -8.70287232e-03,  7.21923783e-02,  3.96378934e-01};

// clang-format on


#endif // __FASTGRNN_FC_PARAMS__

