#ifndef __FASTGRNN_FC_PARAMS__
#define __FASTGRNN_FC_PARAMS__

#define FC_IN_DIM (9)
#define FC_OUT_DIM (8)

// clang-format off

const float FC_W[8][9] = {
   { 1.32172242e-01,  6.63224086e-02, -8.98241848e-02, -5.05739301e-02, -4.22674194e-02, -1.10024273e-01, -8.41367006e-01,  4.92607951e-01,
    -6.78217039e-02},
   { 3.41585875e-02,  2.89802570e-02, -1.20770015e-01, -3.67365219e-02, -1.56223059e-01, -1.20798610e-01, -7.82454073e-01,  4.21695352e-01,
    -7.83111453e-02},
   {-1.70584917e-01, -1.29204154e-01, -2.84202695e-01, -4.10821065e-02, -7.94657409e-01, -4.53055471e-01, -2.31577411e-01,  4.89638627e-01,
    -1.02187313e-01},
   {-7.01372176e-02, -1.53974500e-02, -1.51715323e-01, -4.18342128e-02, -1.34378934e+00, -6.00462735e-01,  1.51289091e-01,  5.43615043e-01,
    -9.05592665e-02},
   { 2.86976755e-01, -2.05219183e-02, -2.04414830e-01, -2.34801006e-02, -1.22045815e+00, -2.42816076e-01,  9.18528438e-03,  2.79066384e-01,
    -7.23087639e-02},
   { 3.65494609e-01, -7.95132875e-01, -2.16580838e-01, -1.79787278e-02, -3.50137383e-01, -3.23433369e-01, -4.44336124e-02,  4.28057760e-01,
    -4.27519865e-02},
   { 7.91097954e-02, -4.29316938e-01, -6.83189273e-01, -4.17578928e-02, -7.54881883e-04, -2.12433115e-01, -1.54258281e-01,  1.97339118e-01,
    -6.08762987e-02},
   { 4.21225615e-02, -1.45468384e-01, -8.42150629e-01, -5.16013019e-02, -4.35167342e-01, -1.17826834e-01, -2.23218888e-01,  2.10178196e-02,
    -7.12111071e-02},
};

const float FC_B[8] = 
   {-3.86783294e-02,  7.78299049e-02,  3.58925849e-01,  1.40032753e-01, -1.32183195e-03, -5.76957539e-02, -2.40697227e-02,  2.32621655e-01};

// clang-format on


#endif // __FASTGRNN_FC_PARAMS__

