#ifndef __FASTGRNN_GRNN0_PARAMS__
#define __FASTGRNN_GRNN0_PARAMS__

#define GRNN0_HIDD_DIM0 (9)
#define GRNN0_HIDD_DIM1 (9)

// clang-format off

const float GRNN0_SIGM_ZETA = (6.842837e-01);
const float GRNN0_SIGM_NU = (2.339082e-03);

const float GRNN0_BIAS_UPDATE[9] = 
   { 1.39025569e+00,  1.34191406e+00,  1.55288279e+00,  1.51175499e+00,  1.30914629e+00,  1.15314269e+00,  7.83022940e-01, -3.85248333e-01,
    -1.41333744e-01};

const float GRNN0_BIAS_GATE[9] = 
   { 8.73542577e-02,  1.59185201e-01,  1.96320042e-01, -1.85308665e-01, -1.22248657e-01, -7.62006402e-01,  1.44052529e+00,  3.71940112e+00,
     4.36141348e+00};

const float GRNN0_W[9][9] = {
   {-1.48320854e-01, -1.70049101e-01, -1.64681915e-02, -1.91293284e-01, -4.22785372e-01, -2.09289312e-01,  2.12395400e-01,  1.14156209e-01,
     7.50188231e-02},
   {-1.12333976e-01, -1.81403652e-01, -1.45100147e-01,  3.30641828e-02,  8.80419761e-02, -4.41915929e-01, -3.57255369e-01,  2.30467305e-01,
     9.78077576e-02},
   {-1.85534973e-02,  4.16351035e-02, -4.79024559e-01, -5.52879810e-01, -5.42540960e-02,  1.31360441e-03, -1.89345241e-01,  6.74703270e-02,
    -2.28492543e-02},
   {-1.86194018e-01, -2.03676835e-01, -4.51370850e-02,  3.74404863e-02,  1.29961565e-01,  2.64027894e-01,  1.67293660e-02, -2.54926950e-01,
    -2.80719519e-01},
   {-3.23458426e-02, -4.36938047e-01, -5.64321041e-01,  7.46464878e-02,  4.10317220e-02, -3.15287558e-04,  2.57293833e-03, -4.61994559e-02,
    -3.84635106e-02},
   {-6.33214056e-01, -4.79276478e-01, -1.90424338e-01, -1.08926550e-01, -6.49859011e-02, -7.53209218e-02, -8.31139684e-02,  2.11044680e-04,
    -6.75442517e-02},
   { 1.44143313e-01,  1.17336564e-01, -5.20572141e-02, -1.13261469e-01, -9.85769629e-02, -7.72130340e-02, -1.36765629e-01, -9.10031796e-02,
    -1.54176548e-01},
   { 7.62164444e-02, -7.22645819e-02, -5.34830332e-01, -1.99952811e-01,  1.86005905e-01,  1.15708314e-01, -6.93192426e-03,  3.48662794e-01,
     3.98819894e-01},
   {-4.86768633e-02,  2.35646814e-02,  1.66727602e-01,  3.04605812e-01,  1.00638524e-01,  1.41754583e-01,  3.62533897e-01,  3.47512186e-01,
     5.79109967e-01},
};

const float GRNN0_U[9][9] = {
   { 1.18840110e+00, -2.89682508e-01, -1.55121714e-01, -8.36144924e-01,  7.80212209e-02, -4.17913012e-02, -1.12600036e-01,  6.96675330e-02,
     6.40387833e-01},
   { 3.31292264e-02,  1.34823322e+00, -1.12486914e-01, -1.37873426e-01, -1.48657605e-01, -1.34407878e-01, -2.51268357e-01,  6.37778401e-01,
     8.88431847e-01},
   { 2.26434171e-01, -3.15948457e-01,  1.45626426e+00, -9.35923755e-02, -2.66906857e-01, -1.24461047e-01,  1.58559591e-01,  7.18883216e-01,
     1.34007120e+00},
   {-3.58320683e-01, -3.08336020e-01,  1.39574856e-01,  1.06943953e+00, -5.02191745e-02, -3.17683935e-01, -2.91324764e-01,  4.67870623e-01,
     8.07257354e-01},
   {-3.25044245e-01, -3.08312833e-01,  2.53116131e-01, -6.23049438e-01,  1.43469214e+00, -4.19593215e-01, -4.53288227e-01,  6.45830333e-01,
     9.59040046e-01},
   {-2.74652064e-01, -9.59728956e-02,  1.78895846e-01, -1.03546470e-01, -5.44762671e-01,  3.95021230e-01, -1.99774599e+00,  1.48599076e+00,
     1.37002468e+00},
   {-1.99009433e-01, -1.04298800e-01, -2.72779256e-01, -1.30859733e-01, -2.27630615e-01, -6.94139659e-01, -4.25042152e-01,  1.03053176e+00,
     5.69301963e-01},
   {-1.72171280e-01,  1.51692122e-01, -7.60191381e-01,  3.04462314e-01, -5.88963211e-01, -4.27447051e-01,  4.90306079e-01,  2.06777811e+00,
    -8.17151904e-01},
   {-3.26143175e-01, -2.81983882e-01,  5.16655706e-02, -7.92444706e-01,  1.28510565e-01, -1.07901871e-01, -1.03073823e+00, -3.76854151e-01,
    -1.17270720e+00},
};

// clang-format on


#endif // __FASTGRNN_GRNN0_PARAMS__

