#ifndef __FASTGRNN_FC_PARAMS__
#define __FASTGRNN_FC_PARAMS__

#define FC_IN_DIM (8)
#define FC_OUT_DIM (16)

// clang-format off

const float FC_W[16][8] = {
   {-2.78549224e-01, -3.86406869e-01,  3.53558868e-01,  3.32582533e-01, -7.32033908e-01,  2.65257478e-01,  3.52799654e-01,  4.79140490e-01},
   {-3.40096653e-01, -4.93405819e-01,  2.25521892e-01,  3.59685034e-01, -8.12137842e-01,  3.50178331e-01,  3.54315251e-01,  5.90419292e-01},
   {-3.60087335e-01, -5.06390035e-01,  2.50949651e-01,  3.72199804e-01, -6.84130251e-01,  4.16663140e-01,  3.86262268e-01,  6.46703124e-01},
   {-4.13911223e-01, -4.90545481e-01,  2.66271591e-01,  3.47974539e-01, -6.21087492e-01,  4.59427983e-01,  3.71276498e-01,  6.55015886e-01},
   {-4.58666861e-01, -5.11542678e-01,  3.04222077e-01,  2.69681036e-01, -6.37389183e-01,  3.94936204e-01,  2.79220879e-01,  6.60403550e-01},
   {-6.11041486e-01, -5.52611232e-01,  4.50919360e-01,  1.60661951e-01, -5.88304937e-01,  2.70380437e-01,  1.19840056e-01,  5.92308223e-01},
   {-9.15919900e-01, -5.31033158e-01,  4.85708982e-01, -3.81474681e-02, -3.96055579e-01,  3.49646747e-01,  5.38701601e-02,  3.89085203e-01},
   {-1.14234018e+00, -4.03266996e-01,  5.85019827e-01, -1.71688616e-01, -3.16476524e-01,  4.05223668e-01,  8.84746537e-02,  1.36249676e-01},
   {-1.11985707e+00, -2.21346632e-01,  4.90846932e-01, -3.08128357e-01, -3.99435818e-01,  3.69069636e-01,  1.91203889e-03, -1.56064276e-02},
   {-1.03765464e+00, -8.81885085e-03,  2.81163573e-01, -2.22372204e-01, -5.65990567e-01,  2.77663052e-01, -1.74780026e-01, -1.81679300e-03},
   {-1.07800496e+00,  6.14964664e-02,  1.44225299e-01,  3.36785048e-01, -5.76570451e-01,  2.33336717e-01, -2.55305469e-01,  1.08044177e-01},
   {-1.25050187e+00, -3.46217424e-01,  9.18818265e-02,  9.28000927e-01, -4.51234072e-01,  2.90212333e-01, -2.68795252e-01,  1.67423412e-01},
   {-9.83213723e-01, -8.15870941e-01,  1.66598149e-02,  8.84380758e-01, -3.57611626e-01,  4.03213054e-01, -1.92591354e-01,  3.01634759e-01},
   {-4.52843606e-01, -1.11760736e+00,  7.56761357e-02,  5.53221643e-01, -3.59912276e-01,  4.35375065e-01, -2.25677881e-02,  4.00490731e-01},
   {-2.08551154e-01, -1.00900352e+00, -1.69631392e-02,  1.71909124e-01, -3.24856728e-01,  5.27309060e-01, -6.96027204e-02,  2.73946524e-01},
   {-5.17389119e-01, -8.70390177e-01,  7.32690692e-02,  1.20304629e-01, -2.38034278e-01,  6.67529941e-01,  3.76407127e-03,  2.08430991e-01},
};

const float FC_B[16] = 
   {-6.41544461e-01, -4.94485736e-01, -4.41390187e-01, -3.80054355e-01, -3.22683454e-01, -2.73933619e-01, -1.61406980e-03, -1.12893209e-01,
    -1.12994306e-01, -9.67586488e-02, -3.56750011e-01, -3.63340735e-01, -1.55541390e-01, -4.03497279e-01, -1.39381468e-01,  6.28487244e-02};

// clang-format on


#endif // __FASTGRNN_FC_PARAMS__

