#ifndef __FASTGRNN_GRNN0_PARAMS__
#define __FASTGRNN_GRNN0_PARAMS__

#define GRNN0_HIDD_DIM0 (16)
#define GRNN0_HIDD_DIM1 (8)

// clang-format off

const float GRNN0_SIGM_ZETA = (9.176945e-01);
const float GRNN0_SIGM_NU = (4.145544e-02);

const float GRNN0_BIAS_UPDATE[8] = 
   { 1.27678859e+00,  1.29644442e+00,  6.50543749e-01,  1.19584739e+00,  8.94425333e-01,  4.60999817e-01,  1.41451955e+00,  5.87317348e-01};

const float GRNN0_BIAS_GATE[8] = 
   {-1.13582015e+00, -1.51479363e+00,  1.90333152e+00,  1.02390337e+00, -7.41355419e-01, -1.80586922e+00,  1.67081892e+00, -1.77533269e+00};

const float GRNN0_W[8][16] = {
   { 2.86006957e-01,  1.44867832e-02,  5.19635640e-02, -1.15770966e-01, -2.88773328e-01, -4.98039067e-01, -3.67388189e-01, -1.20607026e-01,
    -1.75170630e-01, -6.83929622e-02, -1.33010149e-01, -1.18760623e-01, -2.96803028e-03,  2.72955686e-01,  3.56906950e-01,  2.09051281e-01},
   { 5.03546558e-02,  3.04417253e-01,  1.83048919e-02, -2.34138116e-01, -2.30516568e-01, -9.42005292e-02, -4.69158683e-03,  5.19971065e-02,
     4.63514701e-02,  2.43010193e-01,  4.14307356e-01,  3.03312212e-01, -1.46060675e-01, -4.61156219e-01, -1.29933625e-01, -2.74871320e-01},
   {-1.69192767e-03, -7.60729313e-02, -4.75810133e-02,  1.16866343e-01, -6.91117495e-02,  1.32545263e-01,  2.92877317e-03,  1.07240014e-01,
    -8.19098428e-02, -9.09985229e-02, -6.37160763e-02, -2.42953300e-01, -4.40681018e-02, -1.48438424e-01,  4.85749282e-02,  7.96489716e-02},
   { 2.05285341e-01,  2.88722545e-01,  7.46490955e-02, -5.59189677e-01, -4.17055011e-01, -3.55019838e-01, -6.19554818e-02, -3.63681614e-02,
    -2.25789070e-01,  7.04270378e-02,  2.82947898e-01,  1.97472528e-01,  3.56240124e-01,  1.51725076e-02,  3.21551487e-02, -5.83724342e-02},
   {-8.01972449e-01,  7.83184823e-03, -4.44071889e-01, -2.02168554e-01, -3.37316319e-02,  1.83356255e-01, -1.86997473e-01, -1.73236385e-01,
    -2.22853199e-01,  5.83708212e-02,  1.30307496e-01,  1.59911096e-01,  3.16834182e-01,  1.08249143e-01,  3.12744975e-01,  2.74471998e-01},
   { 1.19626689e+00, -1.11021772e-01,  1.76848546e-01,  1.36187077e-02, -2.65346229e-01, -1.36587277e-01, -1.06491588e-01, -1.88116431e-01,
    -2.72092372e-01, -4.80968207e-02,  2.00097412e-01,  1.52494058e-01,  1.04168095e-02, -4.95400846e-01, -1.59878567e-01,  4.03918675e-05},
   {-2.63568386e-02,  1.71929095e-02,  1.24599196e-01, -3.33695151e-02, -2.76782095e-01, -5.81657700e-02,  1.34797752e-01,  9.20599550e-02,
     2.37610489e-01, -3.46090901e-03, -2.25796163e-01, -1.34645700e-01, -2.05366034e-02,  5.04885614e-01,  2.92029828e-01, -2.58041292e-01},
   {-1.68503255e-01,  7.87177742e-01,  3.97559613e-01,  3.96130055e-01,  6.32134795e-01,  7.11011365e-02, -2.39347056e-01, -1.36415483e-02,
     2.97317430e-02,  1.61489043e-02, -1.50032737e-03,  7.87586495e-02, -1.73740506e-01, -2.86983669e-01, -2.86159247e-01, -4.90364373e-01},
};

const float GRNN0_U[8][8] = {
   { 5.13080299e-01, -7.51596913e-02, -7.12291658e-01, -4.78538752e-01,  1.85876846e-01,  2.71863908e-01,  5.24423778e-01,  7.61124864e-02},
   { 8.06708261e-02,  6.82770431e-01, -5.80178738e-01, -3.95838410e-01, -4.69942950e-02,  1.65426269e-01,  1.25786588e-01,  5.84069155e-02},
   {-2.58131117e-01,  1.18151590e-01, -4.33487073e-02,  1.13836981e-01, -2.83034872e-02, -1.13951258e-01,  2.89988160e-01,  1.68478712e-02},
   { 2.36231446e-01, -3.42740506e-01,  1.19637832e-01,  2.56979525e-01, -1.27875626e-01,  1.15222573e-01, -1.83420330e-01,  1.31508037e-01},
   { 1.33020505e-01,  1.31790042e-01, -8.54593277e-01, -8.25938582e-01,  3.57512265e-01, -7.41766334e-01, -4.96374577e-01, -3.54112417e-01},
   {-2.53739983e-01, -3.32937032e-01, -8.64623412e-02, -2.58344293e-01, -2.65185952e-01,  4.49089527e-01, -3.17096084e-01, -4.62852299e-01},
   { 1.31967038e-01,  1.79019436e-01,  1.59450516e-01, -5.76255023e-02, -1.54205665e-01,  9.01117176e-02,  2.59847760e-01,  4.56206203e-01},
   {-7.20220387e-01, -2.67013512e-03,  3.18315268e-01, -9.24433321e-02, -2.86405742e-01, -2.90521115e-01, -5.98628163e-01,  3.76706719e-01},
};

// clang-format on


#endif // __FASTGRNN_GRNN0_PARAMS__

