#ifndef __FASTGRNN_FC_PARAMS__
#define __FASTGRNN_FC_PARAMS__

#define FC_IN_DIM (8)
#define FC_OUT_DIM (16)

// clang-format off

const float FC_W[16][8] = {
   {-3.83336991e-02,  1.54632749e-03, -2.99635202e-01, -2.59001374e-01, -3.93407136e-01, -5.83083183e-02,  5.75674713e-01,  8.82864222e-02},
   {-6.62609609e-03, -1.20562106e-01, -3.08821559e-01, -3.55606914e-01, -2.33372599e-01, -5.56967929e-02,  5.29603958e-01,  5.50650135e-02},
   {-2.51882095e-02, -9.16731209e-02, -3.26661915e-01, -3.54544401e-01, -2.37884507e-01, -5.06501757e-02,  5.31639218e-01,  4.70093489e-02},
   {-4.26815003e-02, -3.93244848e-02, -3.21719885e-01, -3.55595917e-01, -2.03282937e-01, -4.61811274e-02,  5.54925084e-01,  9.99802072e-03},
   {-7.82537609e-02, -2.34281328e-02, -3.66067082e-01, -4.44596320e-01, -1.39621705e-01, -5.32266796e-02,  4.62053210e-01, -5.22344261e-02},
   {-1.83233693e-01,  7.78949484e-02, -4.30302233e-01, -5.16595066e-01, -1.02864228e-01, -8.57012942e-02,  2.88083225e-01, -1.85218155e-01},
   {-4.08994436e-01,  2.84148812e-01, -4.76576179e-01, -4.59671378e-01, -1.57167003e-01, -1.12256035e-01,  1.67915329e-01, -2.67544568e-01},
   {-6.76868677e-01,  4.65513736e-01, -4.27392840e-01, -3.49168897e-01, -2.56525695e-01, -8.13003629e-02,  1.54602870e-01, -1.84534326e-01},
   {-8.63332748e-01,  4.64433372e-01, -3.81175041e-01, -2.66651750e-01, -2.88830340e-01, -3.10285594e-02,  1.61613137e-01, -1.76834427e-02},
   {-9.00472343e-01,  3.17963272e-01, -3.63380581e-01, -2.10807756e-01, -2.72638232e-01, -1.08544320e-01,  1.32714376e-01,  1.26457408e-01},
   {-7.33378589e-01,  2.08538726e-01, -3.83320004e-01, -1.96723953e-01, -2.43582726e-01, -3.62895846e-01,  1.12024724e-01,  2.39897519e-01},
   {-3.42683017e-01,  3.02065253e-01, -4.38188612e-01, -2.64079332e-01, -2.13524342e-01, -6.96083963e-01,  1.16641834e-01,  1.89413041e-01},
   { 6.86050430e-02,  3.98484468e-01, -5.01546443e-01, -3.13785404e-01, -1.47846743e-01, -7.51360834e-01,  1.47296950e-01, -1.25601992e-01},
   { 3.10893744e-01,  4.75390732e-01, -5.78355730e-01, -3.08230847e-01, -1.48401693e-01, -4.54885781e-01,  1.45541176e-01, -4.44538832e-01},
   { 1.62642390e-01,  3.20021659e-01, -7.15290368e-01, -1.04135767e-01, -1.52295217e-01, -2.77551293e-01,  1.22291014e-01, -4.24407512e-01},
   {-5.85826859e-02,  2.91905880e-01, -6.96262002e-01, -4.47762124e-02, -2.12416977e-01, -3.80062640e-01,  1.13287769e-01, -3.99079412e-01},
};

const float FC_B[16] = 
   { 5.62485754e-02,  9.80365872e-02,  1.24513075e-01,  1.44096971e-01,  2.11505488e-01,  3.15129995e-01,  3.61469150e-01,  2.38786191e-01,
     1.08784385e-01,  7.42405728e-02,  1.12846777e-01,  1.71241552e-01,  1.91984117e-01,  1.82480104e-02, -1.46267647e-02,  1.85459509e-01};

// clang-format on


#endif // __FASTGRNN_FC_PARAMS__

