#ifndef __FASTGRNN_GRNN0_PARAMS__
#define __FASTGRNN_GRNN0_PARAMS__

#define GRNN0_HIDD_DIM0 (8)
#define GRNN0_HIDD_DIM1 (9)

// clang-format off

const float GRNN0_SIGM_ZETA = (7.518635e-01);
const float GRNN0_SIGM_NU = (2.034924e-02);

const float GRNN0_BIAS_UPDATE[9] = 
   { 1.11671698e+00,  2.53352141e+00,  8.27018261e-01,  1.51793861e+00,  4.96186316e-01,  4.34959829e-01,  4.03704762e-01,  1.51752579e+00,
     1.08549261e+00};

const float GRNN0_BIAS_GATE[9] = 
   { 1.16232419e+00,  2.82204366e+00, -2.82323575e+00, -8.77829015e-01, -4.12936360e-01, -3.72443199e-01,  6.50820136e-01, -2.69600701e+00,
    -3.77380699e-01};

const float GRNN0_W[9][8] = {
   {-1.74063042e-01, -1.20878346e-01, -8.06052744e-01,  3.73995185e-01,  7.56744862e-01, -9.16425884e-01, -1.69225603e-01,  2.89357305e-01},
   { 1.76189318e-01, -2.72622943e-01, -6.04639277e-02,  1.26733080e-01, -9.59007517e-02, -1.26579970e-01, -2.44051829e-01,  1.39864549e-01},
   { 8.27134192e-01,  7.85821915e-01,  2.70797402e-01,  7.96605498e-02, -2.44955018e-01, -1.52087912e-01, -2.28757933e-01, -5.50843716e-01},
   {-1.71140715e-01, -3.31447542e-01, -9.99930203e-02,  3.11493188e-01,  5.93351483e-01,  3.37586135e-01, -4.85684901e-01, -5.53570747e-01},
   {-2.20009521e-01, -9.41477716e-02, -7.60405809e-02,  2.65176326e-01, -3.89425419e-02, -6.01807952e-01,  1.63367048e-01,  7.30553865e-02},
   {-1.67581439e+00, -2.69427717e-01, -6.72596842e-02, -6.07361784e-03,  1.65119648e-01,  2.01434314e-01,  7.16300905e-01,  3.53204042e-01},
   {-3.36282074e-01, -2.40028679e-01, -8.48815069e-02, -1.09681167e-01, -5.38037568e-02,  2.78131306e-01,  9.81107503e-02, -9.33626890e-02},
   {-2.91008949e-01, -3.16781938e-01, -1.27710938e-01,  8.57874677e-02, -5.33049047e-01, -6.44654512e-01,  8.47756505e-01,  3.99292022e-01},
   { 7.01682121e-02, -1.66545928e-01, -5.67359924e-01, -6.03889287e-01, -1.99213624e-01, -6.56670555e-02,  3.49346191e-01,  4.52015042e-01},
};

const float GRNN0_U[9][9] = {
   {-9.30922199e-03,  4.70279485e-01, -1.38009441e+00,  5.50007343e-01,  6.83784127e-01, -3.88551563e-01, -1.44046938e+00,  2.68891275e-01,
     6.52219117e-01},
   {-6.46090090e-01, -3.51157576e-01,  3.47551852e-01,  1.99889675e-01,  8.78083169e-01,  3.76395047e-01, -1.08380425e+00, -5.56349419e-02,
     5.86139739e-01},
   {-1.92214280e-01,  8.85291755e-01,  4.66508985e-01, -8.58712256e-01,  1.61953375e-01, -8.54257524e-01,  8.25752020e-01, -8.85347724e-01,
    -1.30776942e+00},
   { 1.16963059e-01, -8.11519265e-01, -1.51191577e-01,  9.48111951e-01, -1.18678153e-01,  5.15363365e-02, -1.02017736e+00, -2.87680537e-01,
    -3.55588272e-02},
   { 1.77338883e-01, -3.19854617e-01, -4.82612789e-01,  1.52566195e-01,  6.99696779e-01, -8.94491747e-03, -6.14615619e-01, -2.51797676e-01,
    -2.02669315e-02},
   { 2.70191908e-01, -1.34559166e+00, -6.05973750e-02,  4.96127129e-01, -1.58301502e-01,  1.12595379e+00, -9.04385269e-01,  6.14859052e-02,
    -2.53587216e-02},
   {-1.42503962e-01,  2.17271805e-01, -7.09527582e-02, -2.77667344e-01,  3.11173439e-01, -7.20700622e-02,  2.72559345e-01, -4.69984978e-01,
     7.24164173e-02},
   {-2.86670327e-01,  1.22670658e-01, -3.52563024e-01, -7.70914555e-01,  4.55599487e-01,  2.01705739e-01, -9.72664118e-01,  2.44580507e-01,
    -2.92244434e-01},
   { 2.02772886e-01, -9.55801904e-01, -5.58573544e-01,  1.72138050e-01, -5.87123871e-01, -2.17134356e-01, -9.07600462e-01,  3.28297913e-01,
     9.11115229e-01},
};

// clang-format on


#endif // __FASTGRNN_GRNN0_PARAMS__

