#ifndef __FASTGRNN_GRNN0_PARAMS__
#define __FASTGRNN_GRNN0_PARAMS__

#define GRNN0_HIDD_DIM0 (9)
#define GRNN0_HIDD_DIM1 (9)

// clang-format off

const float GRNN0_SIGM_ZETA = (9.494659e-01);
const float GRNN0_SIGM_NU = (5.636884e-03);

const float GRNN0_BIAS_UPDATE[9] = 
   { 6.60566151e-01, -6.69956207e-01,  1.26299107e+00, -4.68312591e-01,  1.30441070e+00,  1.08119226e+00,  8.18711579e-01,  1.14484215e+00,
     7.90414453e-01};

const float GRNN0_BIAS_GATE[9] = 
   {-3.25899768e+00, -8.97024572e-01, -1.64311075e+00,  1.08343589e+00, -3.12744927e+00, -3.37504077e+00,  3.25411946e-01, -9.11564112e-01,
    -2.69073820e+00};

const float GRNN0_W[9][9] = {
   {-5.33502549e-02, -1.32983029e-01, -4.62473780e-01, -5.07949293e-01, -2.94118226e-01, -2.03541517e-01, -1.15408031e-02,  2.47213483e-01,
     3.35852116e-01},
   {-3.86086732e-01, -1.42266840e-01, -6.43681511e-02, -5.79311736e-02, -5.10772839e-02,  1.06978208e-01,  8.12033042e-02,  5.32069467e-02,
     3.55990902e-02},
   { 2.66144186e-01,  2.44695753e-01,  8.15516636e-02, -1.80271268e-01, -6.16836607e-01, -5.28035522e-01,  1.93572327e-01, -5.66930585e-02,
    -1.26461044e-01},
   { 8.26048329e-02,  1.65177539e-01,  3.96285765e-02,  3.50409299e-02,  1.04382090e-01,  2.98853606e-01,  2.68766880e-01,  2.10857004e-01,
     3.57954621e-01},
   {-1.31383449e-01, -2.19774976e-01, -5.25804199e-02,  2.87638843e-01,  1.96416706e-01,  1.58000931e-01,  2.36258477e-01, -4.46271479e-01,
    -6.96725011e-01},
   {-1.09949164e-01, -2.23682523e-01, -2.03817129e-01,  2.45120496e-01,  1.17162690e-01, -5.82950890e-01, -4.62440103e-01,  3.65720749e-01,
     2.64148623e-01},
   {-8.57157856e-02, -1.55584395e-01, -2.32630059e-01, -3.92017305e-01, -1.23034216e-01,  3.15869898e-01,  3.33315581e-01, -8.48843381e-02,
    -2.21590608e-01},
   {-1.68785919e-03,  8.00575092e-02, -2.55589664e-01, -2.40986705e-01,  2.92634398e-01,  3.19520682e-01, -5.41442037e-01, -4.97054160e-01,
    -6.26378655e-02},
   {-5.03822982e-01, -4.81480479e-01, -1.23057961e-01,  1.06704161e-01,  1.02215566e-01,  5.17513044e-02,  1.12780873e-02,  6.93363473e-02,
     2.62467355e-01},
};

const float GRNN0_U[9][9] = {
   { 5.82723200e-01,  1.17420033e-01,  6.44017935e-01,  1.88139558e+00, -6.34820044e-01,  4.69716191e-01,  5.55039227e-01,  1.26439765e-01,
    -1.90006718e-01},
   { 9.25736189e-01,  8.23369980e-01, -6.87847674e-01,  6.19881988e-01,  7.66278207e-01,  2.39116848e-01, -3.57633740e-01, -3.17672014e-01,
     1.01684339e-01},
   { 2.08958257e-02, -9.79913697e-02,  7.43444026e-01,  1.36265135e+00, -2.07403287e-01,  2.26736963e-01, -1.00484438e-01, -2.58972824e-01,
     8.37656036e-02},
   { 7.91184232e-02,  1.56396210e-01, -1.25996098e-01, -2.46755528e+00, -9.38839614e-02,  5.51469624e-02,  1.87605813e-01,  8.01302958e-03,
    -1.44334227e-01},
   {-2.38015816e-01, -8.56399536e-02, -2.56311029e-01,  1.23295188e+00,  1.01351583e+00, -2.29759723e-01, -2.41915688e-01,  3.39959115e-01,
    -4.65983264e-02},
   {-2.14212403e-01, -1.45890325e-01,  8.48778427e-01,  5.54911792e-01, -1.77763522e-01,  3.05960506e-01, -1.33471191e+00,  6.11247234e-02,
     3.67609888e-01},
   {-2.19546944e-01,  1.03225656e-01,  1.10279053e-01,  9.94098186e-01, -1.17624559e-01, -6.39684051e-02,  4.80140716e-01,  2.70554032e-02,
    -1.56163856e-01},
   { 1.59543231e-01,  7.65861124e-02, -4.51551497e-01,  1.62575948e+00,  1.25324190e-01,  2.51927346e-01, -2.45836005e-01,  8.00630331e-01,
    -2.54173666e-01},
   {-9.77227762e-02,  2.55242676e-01, -1.22526385e-01,  7.01948225e-01, -5.09829707e-02, -3.57574970e-02, -1.06677972e-01, -2.02681627e-02,
     6.25607133e-01},
};

// clang-format on


#endif // __FASTGRNN_GRNN0_PARAMS__

