#ifndef __FASTGRNN_GRNN0_PARAMS__
#define __FASTGRNN_GRNN0_PARAMS__

#define GRNN0_HIDD_DIM0 (8)
#define GRNN0_HIDD_DIM1 (9)

// clang-format off

const float GRNN0_SIGM_ZETA = (8.127490e-01);
const float GRNN0_SIGM_NU = (3.616852e-03);

const float GRNN0_BIAS_UPDATE[9] = 
   { 9.16164637e-01,  1.41247940e+00,  1.72532523e+00,  4.37326342e-01,  1.37192440e+00, -1.04872584e-01,  2.24692011e+00,  7.32510909e-02,
     1.73744094e+00};

const float GRNN0_BIAS_GATE[9] = 
   {-1.61063921e+00, -2.58043432e+00, -3.75881624e+00,  2.03680348e+00, -3.34920192e+00, -4.10564280e+00, -5.56993675e+00, -4.29638243e+00,
     2.67114997e+00};

const float GRNN0_W[9][8] = {
   {-5.41480221e-02, -1.43531442e-01, -2.34818384e-01, -1.95463553e-01,  3.07337970e-01,  3.18319440e-01, -2.76385963e-01, -1.93421036e-01},
   {-8.01082551e-02, -2.24486277e-01, -4.68160361e-01, -4.40375656e-02,  1.18216962e-01, -7.88960338e-01, -6.87047020e-02,  1.23901010e-01},
   {-7.31914118e-02, -3.03494751e-01, -8.32166821e-02,  3.11907023e-01,  2.66710013e-01,  1.81597710e-01, -4.06779051e-01, -6.87556386e-01},
   { 4.77964245e-03,  1.16563297e-03,  2.33802870e-02, -3.45671945e-03,  1.40469328e-01,  2.12642223e-01,  3.32641304e-01,  2.57488310e-01},
   {-8.98575410e-02, -1.95048481e-01, -2.78567195e-01, -3.03070128e-01, -3.58325750e-01, -1.73976421e-01,  3.53182197e-01,  1.53247103e-01},
   { 2.66553044e-01,  2.42540523e-01, -1.89620152e-01,  1.30994231e-01,  7.51976550e-01,  2.31626078e-01, -5.05051911e-01,  1.35696724e-01},
   {-7.63921559e-01, -6.84821129e-01, -2.45990396e-01,  4.20609452e-02,  3.40182967e-02, -1.13084212e-01,  1.65240079e-01,  9.58127975e-02},
   { 7.48488188e-01,  4.50436354e-01,  2.48574167e-02,  2.56649286e-01,  2.43304208e-01, -6.02068342e-02, -1.96837053e-01,  3.75743136e-02},
   { 2.26856753e-01,  1.37014547e-02,  9.82011668e-03,  1.10153034e-01, -1.45652831e-01, -1.73341095e-01, -4.18611676e-01, -3.78706120e-02},
};

const float GRNN0_U[9][9] = {
   { 5.95074892e-01, -1.70614466e-01,  8.33532736e-02,  5.53652108e-01,  2.82557100e-01,  4.83909041e-01,  5.66589050e-02, -8.86349797e-01,
    -4.96699274e-01},
   {-6.46370530e-01,  7.80986011e-01,  1.83989167e-01,  2.89247465e+00,  5.68718798e-02,  8.68772924e-01, -1.06914733e-02, -1.39601266e+00,
     5.86281568e-02},
   {-3.36107463e-01,  1.16508037e-01,  1.13358867e+00,  1.90762782e+00, -1.22117635e-04,  5.03477514e-01, -3.67240161e-01, -6.70376062e-01,
    -1.17570579e+00},
   {-5.05892992e-01,  1.95921194e-02,  4.19633746e-01, -1.70998728e+00,  2.44219452e-01,  2.97275335e-01,  1.69664055e-01, -2.54749656e-01,
    -8.68179917e-01},
   {-1.21497355e-01,  5.95680773e-02, -2.37161363e-03,  1.75197816e+00,  8.64662826e-01,  3.44319552e-01, -2.21608475e-01, -7.47714758e-01,
    -8.34267974e-01},
   { 8.90086532e-01,  6.01871014e-01, -5.61030924e-01, -1.48833823e+00, -5.68713605e-01, -1.55030444e-01, -1.56200215e-01,  1.87340784e+00,
    -4.29716498e-01},
   {-6.47650938e-03,  1.40913844e-01,  1.50410727e-01,  2.76217413e+00,  4.30755354e-02,  3.71227801e-01,  2.45422333e-01, -7.20925689e-01,
    -2.74825144e+00},
   { 5.35640955e-01,  1.93934534e-02, -1.12998080e+00, -2.81681633e+00, -9.42255795e-01, -2.00652599e-01, -6.20687068e-01,  1.30215287e+00,
     2.26717591e+00},
   {-7.24321380e-02, -3.09127718e-01, -1.13947921e-01,  1.04433942e+00,  7.14621991e-02, -1.10395394e-01,  9.82743353e-02,  2.93793231e-02,
    -1.36190057e-01},
};

// clang-format on


#endif // __FASTGRNN_GRNN0_PARAMS__

